1.455843247399662 -0.23435627978345308 -0.32657775497103614 -0.23846044385627335 -1.7323416357044674 -1.0789712700409673 -0.9083459176905162 -0.7682705729502484 1.2373356646809393 0.7280229129160531 0.232116332129787 1.028300388680307 -0.08108252067742794 0.8963159671723253 -1.545457287168573 -1.9124846058992835 -0.35764060498652117 1.9998300702639822 0.04078247302683375 1.7129564006170324 -1.7400429670609487 -1.5473910389257493 0.6885808756550498 -0.7488244158484982 1.5067739875665416 -0.1993562070839523 -0.02242227920014511 1.7271433020721692 1.2198237148304918 0.5909883106465563 0.3120397478272504 1.976236653136109 -1.163463226732133 -0.4634517453910302 -1.166874968552796 0.5790414366217767 -0.6061734620586408 -1.2230419710194866 -0.5932414000760424 1.2997758096158718 0.6748489998977183 -0.2570070237881905 1.031479529733838 1.7486693520854362 -1.7986680427393484 -0.5360063516556166 -1.1260989924754943 0.6331686871309774 -0.5548688377276023 0.11481064458092298 0.6277062972612946 -1.767632977129278 1.9334515201410147 -0.8191888029350411 -1.9946150900640576 1.6235890562340167 -0.1520463621135455 -0.17348214089500913 0.9101941279243788 0.7095935806851594 -1.7312534433544557 -1.1145181806486872 0.1991120416658736 -0.7606143423021954 1.390047740004966 1.3460250150294881 1.9358312009364191 -1.2148355746736927 0.8350762214577139 -0.7104834739342345 -0.35387957070009113 -0.9675392619652512 -1.3764789365986851 -0.05512184991323558 1.3261664311341532 -1.2399473382339015 0.3957127699998436 -0.14495215567484965 0.8177861051312436 -1.4692240437492388 0.17340411227803165 0.10815988739287508 -1.3473174638489447 -1.6161198177257539 0.23784921800480696 1.1682307975778674 -0.4188011075112418 -0.28589032327312613 0.631650625252278 1.04717334421887 -1.2606944363529295 0.042222952367066253 0.3416248467095905 -0.6080093305070848 -0.2291633442257679 0.5261918237904619 0.3957190935833049 -1.4819657975532603 -1.7897250189675369 0.8318562663613935 -0.09220698253816173 -1.4987590928219816 0.04466313837612242 -1.6236598361416144 1.5298588113950162 -0.8507042658106538 0.6115013656524795 -1.0229362137383256 0.8221572645477258 -0.996303141273228 -1.1472246390065874 -0.4162763755305602 0.7272259573157034 0.4817326042337272 -1.5664658412571286 1.0401362787717157 -0.36510121107244 -1.1505898390749192 -1.6532755183581804 1.7173783936344187 1.4509552814620543 -1.0765926810849884 1.3642662529022551 -0.6208147351319337 0.632922662792053 -0.7678507364991436 1.0576350467945421 0.7850993987874322 0.33231101964345167 0.8231452920918572 -0.9004994712022767 -1.693604619238137 -0.41665398336266335 0.9857497434566187 -1.8287510510819722 0.22433520354483716 -0.0959561693914075 0.8655429044699501 0.03950138555948563 0.39984176737216937 0.7262538239757552 -1.7214388186946192 1.2280174403318498 -0.35179104864192856 0.7470770503850352 0.9906335434683061 0.1996590329879948 1.4219966149626264 -1.4051524754201832 1.3091146126234798 -1.9236326899631992 -1.7002078872329538 -0.8713516259196004 0.041337281374488506 1.6633887257614333 -0.701949863016202 1.2411110178184688 0.7061349318802357 -1.092734025850423 1.1677538143516248 1.2100318387185747 1.3418188511577853 0.9053926183604304 -0.3928287975414245 0.44511906735013984 -0.663974778628138 -0.8017898141210429 0.716513787587957 1.901964041910609 -1.5901220018362434 0.31340716595575036 1.0398325135228494 -0.5138861338646605 -1.7790544998185671 -0.6052363737420954 0.18402097458566416 1.4459015898346732 0.006498927355728944 1.2365618167616454 1.274324458709919 -1.9465264194169358 0.270613372076623 -1.842231316204384 1.4002848218163986 1.7992327618332693 0.7256825728814433 1.888474665160184 0.7255847958124817 -1.1243009487446487 0.5309494957286294 1.0043561559169905 1.07978310832279 1.9025695720110003 0.32768711970233666 0.4332085950528085 -1.3805337423208173 1.6455420005610237 0.6526941129208961 -0.8291201524072189 0.5408717285021845 -0.09275517722446325 0.018801575256167293 0.5822143963909285 0.8455697504023969 -1.1805977526053526 -1.7168809405239698 -1.4741007021197283 -1.1946779016123543 -0.5588606482797775 0.8807776763708013 -1.9696148154871602 0.041766577803159115 0.8691165970797272 -0.9160389490837166 -0.6831785238799449 -0.013405660625214264 1.946449125226237 -1.3914696545371468 -0.985168537206499 1.3190200128550733 -0.4802496077782826 0.034185226119332286 0.8454059746574303 -0.8129359585057986 0.47912322798329593 -1.9291643167276518 -0.3638912609385197 0.391236653861694 -1.1368779515467613 -1.967691000856836 1.2771235617747274 -0.7658861962917216 -1.886719855348219 -1.0376623263368374 -1.6647949914297466 0.6284567017576181 -0.009630788130686551 1.566597383627159 1.0354746478976036 0.8314287427062568 1.5867561848105811 -0.6919875309424048 1.4124404126090175 -0.9554658306984773 0.2797090252853015 -1.285721215557466 -1.3902230579717048 1.0786181373474817 -1.2921172624912776 1.4651920334326445 -0.6416213722438318 1.1144066081162394 -1.6850254717653967 0.5703662263510477 -0.06356413329978843 -0.3554474381914684 -0.5080923152282607 0.716558741350561 -0.7848373909139132 -0.23563198786605286 -0.7850513559163743 -0.9888963504800397 1.072344326499245 -1.5620908864875942 1.0607378662139932 0.6127891606912765 -1.7480476784735723 1.988546775747315 -1.9831190119711697 0.5604235431514988 -0.9017634119431075 -0.16240646217544508 0.8052759914836796 -0.310878963925349 0.7037394505699699 -1.3458157390680572 1.3598073896537326 0.7300354178863278 0.7476250665500528 -0.8959556938508868 0.5118438883063501 0.38233431206879775 1.5250284394057843 0.5072464368465144 0.04618281214612804 -0.46334495156446776 -1.410168007229313 -1.075455057803212 0.5308156483977378 -0.6487297961609102 1.4419943999704417 1.228571188626365 1.3918406330261905 -0.7686213945694185 0.9271184685134792 -1.6222233568580278 -0.6023047097235334 -1.2638768306552641 -1.725043191919344 0.19579951604840032 0.832925745645082 -0.16507659015879175 0.12463355824330138 -0.8387405310423008 0.8752854930439851 0.45015160956906486 0.8149995979098161 0.42487483145554117 -0.5668912383089796 -0.7086713677780023 -0.6892237349577217 -0.8557165491486232 1.6045501918788936 0.8164107488232535 1.2503677099912645 0.12342347277090164 0.8483195343190322 -0.38886711529234785 -0.05601235166181787 1.8673485672013725 -0.889812272016913 1.4205248478806187 1.5806294698957577 -0.6255210134672904 0.39269127624119415 0.7071516631693724 1.0740960242745323 -1.0587638584253452 0.23903986262275556 0.3381070678562023 0.23703161966689235 -1.706023658205136 1.6737483296674631 -0.04190929783340095 1.4584509928441454 -1.369053772161051 -1.558430168871659 0.5836680761503814 0.569279315090359 -1.5527493526424239 -0.2924689794289598 -1.9063591066750714 -1.7485078396536171 0.46814861490855 -1.1349440307182361 1.9398416013188833 0.527087698559809 0.9778847115262053 -0.908457322139145 -0.8308688885758477 -0.794644898455102 -1.045250821488048 1.4461050104685855 0.03755964904652572 0.5321355934605334 0.569536759592371 1.4816102443622519 -0.6875606641202374 -0.12246778088702365 1.9785890256103207 -1.2514991738676555 1.646459953843843E-4 1.9869681706377524 1.8122958096668513 0.06025172227473286 -1.988761539167899 1.6737125846797591 1.8944006372745918 1.5799985274576385 -1.255113796533722 -0.4206363224353669 -0.7429324756485087 1.4651976106710476 0.5342238564128334 -1.1139647908020256 1.5552557822252935 -1.8900968374560667 1.4359219253551134 -1.8188577888282085 -1.87696002098105 -0.9526936015934343 -0.47844418803452415 1.4454010896528355 0.13815020790388724 1.5212632331766984 -0.42058068615480126 -1.3428517210694644 1.8117783314405396 -0.6770513135052547 1.4476426009233203 -0.7190768873780011 -1.1736694351801646 -1.0566898713284338 -1.2127762591917068 -1.9812475718413831 -1.3514699707299227 0.006027993172777034 1.3272798337642884 1.094211037735514 0.9693782098102575 1.8521317795758974 1.8620080359373343 -1.3606501532763824 -0.7419171760119381 -0.25801056948793766 0.4777499794375305 -0.5584301996570831 1.6296595924362587 0.9080070448253853 1.0499211883360668 1.2040860478662532 -1.1926128943745729 -0.422285338146848 0.9305280598485339 0.8427576263705658 -1.9290083324245324 -0.4013578040958148 -1.2681256310034241 -1.6205356141325176 -1.635330738337505 1.8973930126883642 1.4868351696082254 -0.9644560547799031 -1.655692317404195 -0.9873886282515741 0.49808627604879663 1.6742060444149816 0.2583699682453221 1.4024939885446022 -1.5928859234107484 -0.5088560602063396 -2.0103855164065982 -1.0681820384619871 -1.828322066590228 0.5242657668801414 -1.4471856441063922 -0.4379996557677547 -1.7554063156728115 -0.17430599062762808 -0.3167899521759535 0.8852627433988114 1.039489874296247 0.9847870170539579 -1.8515982738283898 -0.344745065226144 0.07029537631272043 0.4356077648451521 0.09735058382044588 1.491355364571463 -1.7094892130137074 -0.18710405552848527 0.4152109692129534 -0.558681181480829 0.20738566614503856 -0.08867866566375596 0.6031017101794082 -1.7139078977367235 0.9086343294556659 -0.0890098809049156 -0.5453212858348386 0.18492984431968165 -1.3830855166403389 -1.4383478425752747 -0.3708173706871918 -1.4666789920823553 -0.07685685673660017 0.6019054364899987 0.585735277030174 -0.38281193589995566 1.7772166608345803 -0.408839310098149 -1.9736262126283768 0.5566165085797518 -0.11293778138229119 -1.1970321156496397 -0.7525986043180971 1.2571271300934488 0.04288274127128617 1.3637923517372432 1.1153685024085307 -1.2926721415629154 1.8611908544663076 1.2429820395890854 -1.403445969911194 -1.7579049647092582 0.2959049607727408 -0.0604844011596277 -1.287299745236573 0.34390561194825015 1.696571833066151 1.2222540487509594 1.3583910750066719 1.5218436770041939 0.867751180183494 1.389691961392245 0.7654781986031821 -0.4217595250556867 -1.1683594485546136 1.6916388668970148 0.03327933490828032 0.6834127718169539 0.5874566503554698 0.5789852569962534 -0.5922584456537937 1.7268234146068222 -1.0360400755087578 0.2746709549289026 -1.0877832617825753 1.0899413511819145 1.8390038777108118 0.6383808479738292 1.7880016595468835 1.9754014273274159 1.7778310392696768 0.8705309311207311 -1.2854687051557216 -0.34544241090806505 -1.386102562244827 -0.3178028857100833 -1.6541462750723477 1.821277636494355 1.4613975539619852 0.3694400970260105 -0.8374325300208096 1.8602762591480926 -0.6292205424997714 0.9728223559774001 0.832288514328008 1.4290747266849746 -2.0343981952699455 -1.6863419745847736 0.08434789217023608 -0.9811912450221244 0.6861493641141977 -1.19982004359092 0.7044378933097833 0.46210699192523774 0.44495708051645777 -0.9519825125608997 -1.861756349234732 -0.7032511104759053 0.5353502531883806 -1.5200705801475425 -0.2924360326239265 -0.4793963072354863 -1.760808569217002 -0.4929156925081233 1.5708910122827069 0.3314186978768511 0.1581512289998401 0.5013075457793001 -2.0061392785106267 1.9625600729403323 -0.04531755583966007 0.3275662604587244 -0.9251776523809405 0.19227442880847145 -1.8433167665425871 1.5711570579551204 1.4559506397103743 1.0293139188839364 1.402076186729029 1.6399421351893115 -1.5615557637489954 0.8981582940600458 0.6042368510921801 1.041678805048785 -0.39618916055795883 -0.9810173589437894 1.2752997200050251 0.5514884598589247 1.2569105996228886 1.1054145652600642 -1.5257872616965367 -1.7723597537066813 1.3771300708244176 0.6678482311549513 -0.9717656755700778 0.5206768469709754 -0.15621284465021867 0.9245860553779813 0.1214807662451891 -0.017053768070402216 -1.5778957363662403 1.2729250059356798 -0.6922796137356141 -0.6727904659241856 -1.4389189028439464 -1.4646996841510271 -0.7489471504484965 1.567473971619734 0.9885762047728686 -1.3097028396373447 0.5020440181995122 1.6905180695616753 -1.5018975031267692 1.5489125685738856 0.08261393473842538 -1.4492789861271784 -1.680934578006202 -0.9882793055545394 1.1612221620598262 -0.23430931539718916 0.5593007416106777 -0.38700999304834 -0.4654097722651431 -0.7346275185405902 -0.857786794750463 -0.2861845455430044 0.17430608797306116 1.834117052188746 -0.8754226642279482 0.11139121077255251 -0.19150829900102323 0.1375230606004499 0.9014544471620279 1.2012019887752934 -1.840029330873334 -1.0462539193915772 1.135022974146092 -1.1164494257182835 -0.8701450457752632 0.8004537254791478 -1.7864119912777032 0.9930172825803534 1.4290601664921274 -1.1406514662127907 1.8626441987289621 -1.4084159497440054 -1.3433005974339014 -1.8721261134627174 0.7476410039150465 -0.5062702723359251 -0.9399445095204966 -0.5052733030360624 1.3104667405114363 -1.02826509581465 0.07203603597301256 -1.1718304434320495 1.1564545129875528 1.3444155416440082 -0.03748139150492643 1.9467533737535445 1.1661508150527242 1.5674356333685344 -1.288460774653615 0.5757683474507669 -1.5941339602377569 0.43262146545051844 -1.4741427132737663 0.4028993865579227 -0.014073487772247864 1.484184750757779 -1.3928819651774909 1.1853559482113236 0.8271224584057254 0.7209021362096134 1.527696182212817 -0.3634314836879855 1.3676213643145507 0.9000187428187306 -1.7972873477441302 1.710271583333796 -2.084823046650428 0.10936054293305239 -0.9602014195513086 -1.9930399805340038 0.8235192349099884 0.09659559716161072 1.7532285691012357 -0.36490069675231745 -1.2101101740520144 -0.710966497078806 1.76116821467688 -1.5441669918661263 -0.9298650512698579 1.5983113442327301 -0.07685074169374206 0.5652613782718463 -0.2515292291076513 0.47084647426146387 1.8994916917497695 -1.0521819627730606 -0.6935266335360659 0.03350112196827476 1.4444957165736019 0.10592531207182872 -1.1047210525531572 1.4184892732987076 -1.5437404258522813 1.8547386057411945 -1.0373384526806237 -1.070788226284559 -0.8450443085141975 -0.7577085544252388 -0.7815142477892146 1.2766885870111109 0.7257062698733855 1.262964417825755 -0.2967008081026642 1.6900457905702098 0.35224882399051527 1.2962565386243905 -1.6769743070241896 -0.6983102392217636 -1.9542834794835224 -0.05267776995237012 -1.5866494154127677 -1.3420777871548268 1.1691867984454436 -1.0708111903400843 -0.5850427130618778 0.5593039084300636 -1.3268504248205364 -1.6898417194844289 -0.2262877272083412 1.6857412763433406 1.833749311451647 0.7209191699814448 -0.8080470190680242 -0.8561398228169921 0.4619192977596144 0.858220044393674 1.3063589351283251 0.5373077978337711 1.366543480549425 -1.6568951735963393 -0.22526311818455624 1.0058397317692571 -1.135137601533314 0.2202431148973816 1.9060465275582796 -1.0092345980050217 0.21786198952336266 1.9023428477192836 -1.5602428701829827 -0.07646107378155967 -0.8190311235067252 -1.5262544019687843 -1.088234919507356 -0.8579209535451954 1.8895729216687003 1.6237511513076823 -0.7311437598618294 0.9123450859769883 -1.9297955114348158 -0.8203402227344108 1.877253910127735 0.6360699276332472 1.8088537958811357 0.11286618344142609 1.3787348148646748 1.7991657217165324 -1.7819719484014973 0.5439239669442488 -0.5881945626437934 -0.9605591711139481 1.7564555215870035 -1.265020885511676 1.0943822205458276 0.8531653091028466 -0.23962146848855242 1.2622562539415785 0.41376704181970625 -0.32522279022129363 1.3501428513728873 -0.42440072518489835 -0.16487797570250676 1.3749839207720453 -0.7804099391258519 -0.8813328595213055 0.7731679226095074 0.09822856613261555 -0.06328996956267745 -0.26306426625787416 0.533249431471927 -0.27225530641129336 -0.6521699171365191 -0.2518923752748857 -2.070256086191345 0.11807794148115698 0.41152871275145175 1.115473270486321 1.8636757788376626 0.45259257978325806 0.8166895666198313 1.839864396173112 -1.5543261325088302 -0.9182927361776855 -1.85749642698728 0.8984886280808515 1.6574641824735654 1.6079381091058147 -0.623098666453852 1.632443961232429 -0.4463487731958717 0.2447193800288984 -0.5319489503005972 -0.6813686102341117 0.09543103458018387 -0.24598334996420934 -1.5388282509480062 -1.3725968129297634 0.47624595490118027 1.2420222920986537 0.7112159821131935 -0.8697550026572406 -0.5265898731458435 -1.6626263327247102 -0.18858872086285688 1.6562371459048326 0.5997566870787797 -0.20692517043915634 0.8416513789485438 -1.3875779543789117 0.1312807007924486 -1.303621377739691 1.3280638848470685 -0.574557547872491 -0.41637398423876243 -1.095412217234969 0.5019202730398832 1.9093880398023508 -1.163733751150397 -1.2133486062796779 1.6332043133590504 -1.9964142235123394 -1.150911927059168 0.13673090137595584 -0.23899588776954234 1.895167754515102 -1.389834171196043 -0.8721428181437717 0.07512112408799411 1.1875754593438166 -0.5745666964228408 -1.92874091521778 -0.006440971111987145 -0.38282644722771264 0.60653043654359 -0.38725476922772983 -0.3763890779448217 0.6664115283727103 0.8383537614168339 -0.5041686871070982 1.6752389467804094 1.1448836540022915 0.4153761987022494 1.951969619251116 -0.9478346052132992 0.32344958665047363 -0.7007172438499617 1.9293817131639335 0.4043444504284663 -1.9639609687398019 1.4922266146355248 0.08436499986259027 -2.004522796202686 -0.4382133262014323 0.7879363093731797 0.2679792050577108 -1.2565561734162807 -0.08013527912770028 0.6931445688815493 -0.8936101613841155 -1.6241289355256603 -0.8480482353251991 -1.9555087040606551 -0.21955957477274207 -0.6442410401099404 0.07793658007518105 -0.14374083933236184 0.3666977794776783 0.6858181921607488 -1.0516237264877284 -0.8643463440682471 0.9430645275974825 -1.9657614780055204 -0.9807368195056057 -0.3323619401238008 0.284758940663978 -1.4282746369768684 -1.5610967722445246 1.1826480836348463 0.7623659319623337 0.4723003720020775 -1.2695276184981146 -1.9188462109130144 -0.6757285256779796 0.308841398604632 -1.337963143463322 0.8389413994856176 -1.2888704217247113 -0.3921375061814814 0.5730354419684133 0.3284449994287539 0.6556791939255885 0.8265988099497127 -1.5622227217835518 1.780624717197366 0.18072701760628157 -1.3874066702277377 -1.2006142130154576 -1.118927809152138 -0.7713778528730254 1.1302157747238333 1.8310081412625037 1.391931295834547 1.6545407004869448 -0.8019261757496401 0.796515380472287 0.3679018076389902 0.8965766364113698 -1.1141844896704782 -0.7446018739634367 1.5821215167499059 -0.6531007610410262 1.9887729462987815 -1.1730598183410021 -1.2395203522399474 -0.7593611597156134 1.9410185312665036 1.9580951670673745 1.3460564829364678 -0.7532439843563876 0.3676917724118451 0.12341178192795214 -1.2755826977366382 0.11265415497416469 -1.0396882080444578 1.337251881158143 1.296893959662635 1.6819901670393023 1.3348987606282043 0.44824108652927963 -1.8356556492447647 -1.544385833253389 -0.3806130987337131 -0.4073814652596499 -0.4627062291334454 -1.6567697252453613 -0.6341437642724554 -1.465877092900263 -0.28759075892837194 0.3390725070218501 -1.8626049776780484 0.8689942848505701 -0.4674053443254098 -1.2241223599232827 0.452768407481534 -0.6562590978219167 -1.7360998910619756 0.2061520960125292 1.059108044222098 -0.9922069969028013 -0.6140371374251641 1.5099886025069622 -0.6633416704123836 0.18042778440884197 0.5887127330024122 0.6559560031769953 0.040898522221527185 -1.940283730880995 0.8610644386012212 0.16582234885956787 1.209316707453293 -1.2415878507283769 1.6740582015102878 -1.5022181729486106 0.45143193003363935 -1.568892160396429 1.7708684925691118 -1.0232914572507128 1.3286326715105843 -1.3022181820483043 0.2153025915694866 -1.4838452723142552 0.14699818863161385 -0.14659246254491398 0.05435785716389452 1.2205239476286955 -1.3364731539679404 1.0447101794792726 -0.3523371137126756 0.79871017356913 -0.19276934495950826 -0.2725545307134838 -1.0057310145722211 -0.8620971686808181 0.9585941669496364 0.6908618936555707 -0.8011388071277642 0.6589318235845923 0.322524366327288 -0.5507632404712742 0.16033945876006778 -0.9533423311831022 1.853239329698442 1.3235997249609917 -0.40418555145019297 1.5804347390842721 -0.32659218876209495 0.3500953171388851 -0.6439472183818051 0.05539944718149131 1.2184445340993422 1.272130048307422 1.3284083598969547 1.5689671780487415 1.8448821357574277 -1.2836122713719398 -1.836966090015651 -1.8703816220347806 0.9463627697848738 -0.5699566583893825 -1.028462224215307 0.019759297197945447 0.8969179208432139 0.4729377616065751 0.6436061121163168 -0.04300143979298321 -0.48272439634792796 -1.9966495029273958 -1.5874448038994484 -0.9392339213109153 -1.3890348690192376 -1.2628821769419876 0.938430621743287 0.13890019176814414 0.8090296339315483 -1.6413515609495188 -0.6158525932915359 0.2952936173894892 0.19413568238524692 0.05298828400474801 -1.4626261409402024 0.7672637304457242 -1.583158179357729 0.6554761853390585 0.11131593660006334 1.7020856221611018 1.5488759901280769 1.8706625417824883 0.29936663723994983 -0.2251712125047514 -0.2422844305014507 0.2678870785760787 -0.7972835758982677 0.4025319118975783 1.415446961700541 -0.2698162024054814 -0.36748522885231916 -1.6102323519840536 -0.9850769744342411 -0.25857429634450835 -0.3425282513945298 1.4783586000221418 -0.9227406104885603 1.8449722950391587 -1.3104511443876539 -0.11187871124404136 -0.45334460238061824 1.477437637007447 -1.695605611551081 -0.7452355370528676 -0.016120603618942124 -1.0761443471417877 1.4588636826818433 -1.7447079533693615 1.9084746576599698 -1.2463522913502987 0.40755660088907397 1.8986773175193699 0.36998341404121615 0.8812359172136264 -1.8552448539081168 1.6553992876696502 0.04862766859252551 0.6536361542079958 1.1358357096165344 0.22193474280966252 -0.5608780085165268 -1.5843332204384948 1.51200993374858 1.4119885227324567 -1.3992380255630976 0.9261535875649762 -1.9576226677691968 -0.24213768581517603 -0.6936088393692058 -0.6478337577438879 -0.6686041557297971 1.7723973159180568 1.5836301671001567 -1.4795312510529817 0.425168410735115 1.4452578333797161 1.0329200129266436 -0.23263792213254808 0.3457941478814468 -0.13046686856962486 -1.4904768055391733 -0.010329009674398648 -0.11435603170667408 -1.9763313218656218 0.6876076966678735 0.4992317445000367 0.1288734676756589 0.03156181312083561 -0.1567376649267584 -1.6387835049050332 -1.1903844296568404 -1.8076744344706548 1.3747507257113323 1.2059851584912131 -1.4293043683534747 -1.0908374731918384 -1.2940286006011263 1.1149079542404972 -0.46428956816771183 0.35497370932553995 -0.7911697158936626 -0.859649962085947 0.7112051538497157 -1.1935248306067863 0.15501535712977144 -1.9219992814456293 -0.8454240654018383 0.045812526959738954 -0.5430990336683401 -1.304746824958248 -0.143917459245772 0.15199294373017203 1.1640341943111387 -1.6186418880481162 1.1478558984298588 1.2509490610178116 1.187601422144001 1.926455202298519 -0.5140817576736141 0.34696842719841126 0.6377371443302118 -0.8489752790905185 0.7948570931530712 0.03687222349194087 -1.0363208837840472 -0.9865133890549874 -0.817544445419852 -0.30053661035768686 0.3429721024605159 -1.9632423406381199 -1.3677812142129755 1.290070722270957 -1.4485533835158515 -0.2847258578212072 -0.31809559278242616 0.23330105263314382 -1.358837153041401 -1.14941941665091 0.5892023655564884 -1.0270448211355474 0.8657251205750236 -1.7234420133402761 1.6466224143013328 -0.6889106905607596 -1.019677440373621 -1.6410416823736205 0.534631038954268 -1.7726424872521076 1.5415732845565044 -1.1693114380655343 -0.6742443487298727 -1.4102220988665175 -1.9204635775612517 -0.025121614873353505 -0.3543945667662176 1.2199100458631649 -1.4062316516959772 0.31952297445681976 -1.7494443764774603 0.13372265318553012 1.3698546904691202 -0.9167039801789081 1.8750388477224234 -1.0055533503040406 0.1533563877869338 1.1838855404909252 -0.657160701336657 -0.4928860191169848 0.03250737075551094 -0.5437979335027552 -0.5618895492519784 -1.743288830908442 0.15445977082317178 1.1097322798832525 0.8467309783222441 -1.730530716701767 -0.1623239115652113 0.15311240022248085 1.7663496242202241 -0.09534116865065134 -0.22983050413935335 -1.2871476107461872 -0.9084805126555984 0.02294469689218988 -1.7746931146546367 -1.7292265659800001 -1.0817887131348567 -0.7972503929292646 0.07669079443481767 -0.2337329999719466 0.8233487963325566 1.8741834399789672 1.7125556101775359 1.089490832204765 -0.3322042634536 -0.6819836678614591 1.6338334701751709 0.7834892732122272 -2.016003715165798 -0.6860458698074658 1.5651119214299187 -1.6594882871272356 0.8690545287140387 0.9972625262626867 -1.2057857680502504 0.8947869023465964 0.1786134004088076 -1.1185441339380289 -1.8925852356924067 -1.7028374848116947 -1.9682472947170762 -0.9510304246795755 -1.7163610543070196 0.6842957378802055 1.3257190470102207 -1.76842250518454 -1.7840160781900944 1.2914049929728393 0.6330830263315157 -1.5907461526730093 0.14481203374544172 -0.7952490723726595 -1.869229712837009 -1.6285605847015077 1.461005244882038 -0.7444021635244811 -0.8167480962252922 1.8048143388498252 0.3404308361930561 1.5911195183336637 -1.2501495733932295 1.5577539408770071 1.947455208366314 1.4657515751301757 -1.6802721809277756 0.5429311504351944 -0.9706813415816229 -1.5882840012429928 0.9670412968204173 1.3035740868876442 -0.43151481480031173 1.323996418000591 0.16113265166411697 1.3870336760873336 -0.4405306816353517 -1.074318744742541 0.17057301894314295 -0.095477414650599 0.4931067204000611 1.127314414740223 -1.4724273084406345 0.3148233624230425 1.071415303419165 -1.7347608845234062 1.271548883479731 -1.246700573711846 0.24098338323649998 1.3002660530039047 -1.229762706682621 1.338381164266558 -0.9750912122133535 1.9807178031387094 0.12784892443637014 -1.8699292016221258 -1.8430674882659785 0.029544547762850083 1.0982048988816673 1.3546853381417798 -1.2576591737307414 -1.833235837598423 -1.1831303185718276 1.9373869291894021 -1.1212166988651628 0.018619950858463793 0.6876902008462444 1.436774574204654 -1.4958653842757397 -1.1700167557172112 -1.45774274630339 -1.7101386197333295 -0.16617475373862792 -1.4769089249743443 -0.4729211364901317 -1.356099435233378 0.39945541990786315 1.8263492278463762 -0.372010998922777 0.5367383320828081 1.4669833804027677 -1.4608329833241975 -1.3816213944887923 -1.9036992105314234 0.8028697315459461 -1.6359814990338704 -0.2795640776323446 -1.036637348284777 -1.4283418639115293 0.32968687924982787 -1.4019220881693746 0.5025819597391643 -0.21005733306347696 -1.4904671377972567 0.7613933094169787 0.8591570613560675 -1.4639341992002428 1.1603187743325358 -0.3346488957600052 -0.8918621649929386 -0.4148021529181652 1.915839997931008 -1.9244930148293513 -0.5792365514232641 -0.9016598779803986 -0.5938272133321791 -1.2087593002120223 -0.5251624689565528 1.5776767444054791 0.43236527265577906 0.3573282229204632 -0.5994944938966453 1.6460147005670065 1.7474724752336523 1.0969770670500487 1.17032903346919 1.107439748036725 0.9254790915678548 -0.9886455547636527 1.0785396326426933 1.8073047136410656 -0.6081103249731654 1.4640389471115185 -1.8874128979376534 0.8936411787757776 -1.6950088481054624 -1.03439216438641 1.8042479656402943 0.39360113472822633 1.8195593779761412 -1.0030280302572112 1.757696857865956 -0.5828322592166999 0.1946610495992187 -1.4780257937806536 1.7950932760635008 -1.5591853113476601 0.8788972424774686 -0.7079113376535249 -1.8561875379570096 1.3512647941658313 -0.5348500929276633 0.5863409101469045 -0.33902243723215936 0.38481653083762607 -1.6065323461942616 -0.20271451840609142 0.8899204097689304 0.5753857414354786 -1.710351256416214 1.0641546105902433 -1.4352776928503046 -0.035455839286295754 0.9984697519609772 0.1066221644795973 1.1625686651982539 -0.02437869482087535 1.0505389975006738 1.8745223034342413 1.6413111444000212 -1.3343926093023835 1.144676406707286 -1.7477328405228953 -1.201835128939981 1.9022597975104123 -0.9073621924341406 1.703488189954281 0.6099209453792112 1.0750252724391183 1.7654575574443985 0.6148256871101512 1.3268606087418717 -1.402298180022912 1.7612505638757259 1.0596942849982367 -1.7982350729607333 -0.14939627096683172 -1.5646024134782415 1.3606598701690418 1.9761445750055564 -1.312232632503135 -1.0569307684414722 0.9754657653956343 1.3137634980579038 -0.6600307335495658 1.1805213635011589 0.003051185593268619 0.06439356988974292 1.2720276638194095 -0.2294516169415988 -1.861048560809215 0.35669863257725737 1.442913806433156 0.658785055009581 -1.0040293612981244 1.7529569454079754 -1.1837911706056181 1.8178058776972332 0.9548832616621417 1.4855998879386019 0.5297992577984567 -1.3514204186200418 0.981239249292702 -1.6554640251294213 -0.2824711558725487 -1.2160893331492046 0.3432093879827668 0.9582227417622615 0.7868833005737255 1.3411081144102266 0.75191537181139 1.8737174226754585 0.8557926296546312 -1.8986189887921758 1.773242270037841 -0.8002550766152297 1.6916902940509317 -1.7352374798822592 1.8198501037057289 -1.9767262638200225 -0.7763292024027546 -1.3116797506527837 1.3187216527628527 0.4840799852190807 1.6538284858886416 -1.9981018254061962 -1.43879668301822 1.0882319324694099 -0.8284391132995407 -1.495412152836238 -0.9227841370971318 -1.2997660720062598 0.41467715506018527 -1.5835663141044793 -0.17213752424248033 1.021323318221684 1.4701574427296624 -0.7598677596586029 -1.4833110719759177 0.8915286044446744 0.018770596482350434 0.33009776015766834 1.0875878298407338 -1.694337463894066 -1.9384200643862866 1.1313349207111043 -1.1299194131592445 -1.1864568878869142 -1.2722739305281647 0.1431761548380852 -1.2862650914262101 1.8424825136149046 -0.18811631656193328 0.3431904983747912 0.031026998651799146 -0.91110147449821 0.5798443627516381 1.2278824041440781 0.3776792686119529 -0.17765093272260024 -0.6416202341799528 0.13574882084773388 -0.26387934875517616 -1.1307164588404968 -0.369220141464343 0.25475174167894443 1.829342534393943 0.9902557004387641 -1.4128375970935894 -1.5247817989830241 1.3771344208538085 0.47314937748450403 0.4687066139531947 -0.8295157587564952 -1.090754285396251 1.3827235322787668 -0.056030284449212715 0.4178542780774037 -1.9939649640591965 1.6868962331634878 -0.18319458945189493 0.765062046434426 -1.1450854038644567 1.2827559437806946 -1.5507722253771454 1.26248606783825 0.6536362439089198 0.9754025387843144 0.5939207060242402 0.323989483511936 1.5224867197029288 0.5804736924962826 -1.269896999747649 1.9095029314119267 -0.5849831236542826 1.1800219124479956 -1.8634857289786246 -1.8062164649119128 1.4766458593344034 -0.49214496118588413 0.16298723951134353 0.6447277239737566 -1.9128980901762889 -0.3855521073264516 -1.3826857624777737 -1.5788887650201833 -1.7657172341165723 -0.8420190355246135 0.6618169387951314 1.008577161736059 1.7018350119106773 -0.9731293439732531 0.2540842673736614 1.1840030233598022 0.5053086450985309 1.8669100737875883 -0.6846505837583239 1.1231469410752497 -0.4822364569644736 1.116251825431753 -0.8786608500909603 -0.04703725213354607 1.4934449113495212 1.2040343638571265 -0.25575172081047826 -0.8385302954549574 0.5908894636443485 -1.1514333444121119 -0.06414445673792117 0.8778281903783167 0.8778401108952547 -1.2412609284767575 -0.5091986622194498 -1.668416344064618 -0.6220911423113678 0.15113875963729373 0.519104299429892 -1.7714953948850194 1.4286389385571392 -0.26369125647297176 1.579212470199965 -0.9196726479961783 1.201756607762977 -0.06001732998333021 -0.9834829323716621 0.09448727997867468 0.5864183408461496 -1.4936128545711995 -0.5297389929695674 0.4236812577317919 -0.38872534260963465 -0.3630262488121676 -0.8445899442910987 0.7499930597888058 -0.46269013625314614 -0.15015655270761896 1.59278460949826 0.776295282876271 -1.867354483572951 1.7994854606024016 1.2892027052304835 0.5573402950488786 0.7814500277913687 1.71507730309463 0.4532054205681787 0.7180278358052639 0.9754148710584802 -0.44968020436162603 -0.9592430962805794 -1.6535969422918881 1.2575815860652646 -1.3935945348273224 
-0.8714484347360771 1.5834336033949667 0.7040409784124126 -0.05613275505870709 0.805775401346237 0.6560764229136964 -0.4652550976561164 1.6824392793314091 1.7893498713547276 -0.3544248076171649 0.7713461544104414 -1.7101278418487107 1.2626316151215864 -1.8908720404014177 1.4674333945232876 0.6438560219074276 -1.6128585144843623 -0.8460888191332068 -1.7013766252040163 -0.05544439040879702 -0.4766123708306095 -1.3198110602808582 0.1989667263855994 1.4854999021363198 1.4023908619085588 -0.7529695596407884 0.24816599641718515 1.8398658584739551 0.32176568987088106 -0.6223471905772626 -1.8411504165844637 -0.8048118594889837 1.8972400248487755 -0.8903147347745632 -0.5173244858086472 -0.6296914114510728 -0.017471080308811282 -0.7910634341353557 0.04857125356407087 1.4741596452121164 1.0775088707949299 -1.296476839816067 -1.8340539932537432 1.216757973689941 -0.12332994457475645 1.2585021559898015 -1.2297561014478826 0.5585660888574469 -1.4331457677388553 1.3994302263969205 -1.0422623307600443 -0.3148407513031318 -0.9346789994845419 0.7065529910258912 1.250992815727403 -0.7800816031177218 -0.40378944002046946 1.8396110085490256 1.4559651842358878 1.138249797204539 -1.1644920374305894 0.6165279431405992 -1.8837759684230062 -1.9773868365069243 0.31164081658877285 -0.6424707966258014 -1.6606743764697955 -1.9015774947691582 0.8308772601296577 -1.6804797279894874 -1.8351066092035886 -0.08333605672513868 -0.5962811413469293 -1.7161651629130565 -1.3365095900848623 1.5998564551057357 1.4805169572529122 -1.7762553475819467 1.5999032866771739 1.2437629774790726 1.261571036020543 1.4664032956545028 -1.2360131635627 1.368040466651062 -1.571001096689574 -0.12282129245662322 -1.0332499655733636 -0.7652021439670571 0.8547005204995883 0.33260963979699343 -1.7811054039934384 -1.595185767474431 1.6707671412314977 -0.8884976319216407 -0.2464498508553781 -0.9230520707565748 1.5457203941295963 1.8219655258032095 -0.6755193566549849 -0.44294825005572613 -0.9080039006896883 1.0954624453050887 -0.3944336454975196 0.6284866093625727 -1.9628811399876023 1.517241359384554 1.536899838887508 0.6471127791623357 -0.8769547847489825 1.1257845759780079 0.10736268653337853 1.8594126176489025 1.6551840662957007 1.3022002585995942 -0.6669160484356429 1.7431862858739744 -1.7953658473699248 1.9837599569534863 0.08570972719772006 1.0960374793853456 -1.82578913680663 -1.1259316097789998 0.9439457846256667 -0.852347776233781 1.7708633212993012 1.6856307857411155 -1.613632008973012 1.1476521734744236 1.3841167750165582 1.4388667356583351 -1.5869776574587 -0.3184148326563564 0.45220532222321375 -1.5451009466929606 1.0778729731014005 -0.6066005655906934 -1.3954097478400667 0.9177284633799088 0.4336827004496865 -0.15647411695890082 0.2015925945174237 0.7446847808719965 -0.9645534263898796 0.9074759543457718 1.348897978376701 0.9923287222831985 0.41802523924962565 1.4206452726142897 -1.9532754095971856 -0.8617424576280934 -1.1418385231143318 0.7007894631553231 -0.659525373887554 -0.6824500697290177 1.250589401166077 0.13042656820805673 0.17172216983047603 1.955867215311717 -0.9275183793616792 -1.8428039035248918 1.0854215670108327 1.2295085082158876 -0.819993222103012 0.8709889911984117 0.03125113978473536 1.39599830832009 0.5753050650638263 -0.25755700016749994 1.2040381389766446 -1.7229315716509248 -1.6982832244194483 -1.841820143108293 -0.7997571017629423 -1.9608265196893266 1.269633679047503 -0.9360594046163031 -0.2754886489385119 1.904965590104808 0.08487151967517036 1.3275589034225117 -1.337665266391849 0.5424300929168904 1.8459947908479024 0.3594903832151909 -0.4581110313380353 -0.3833313393225243 1.39655563142471 1.0794004858305142 1.2401562197947267 -1.6474033669979562 -1.337260094061918 0.4930922567136743 1.2454606383990527 1.945101436404284 -0.5235550272451703 -1.055162198915086 -1.1294133283966619 -1.7335077789375686 0.678345073141595 1.5359575913834798 -0.4823278558183336 1.5593509615204009 -0.6849698001087898 -1.748724827530575 -0.5718923729438623 0.6661752376631112 0.38883850838176814 -0.9891481816053036 -1.6923021587461813 -1.1645121388899096 -0.1114705688389608 0.16519288692097842 0.7993766625160801 0.25736556522378085 1.7234811643407606 -0.122106687038847 -1.0172024139055709 1.2196233974944328 0.7036169168220318 1.3904702903837372 0.9121470182086034 1.1391669884064566 0.8518327068997866 1.3399275434190305 0.6605758164833577 0.7113218971573534 -0.8949154953154046 -0.899654029183848 1.4216534973200687 1.0332074539815097 0.8552467598227922 -1.4543850972405417 0.9252882923618622 -1.2044855444162956 1.799582995409097 1.681159747860843 -0.2423930618974948 0.500342151322984 -1.7838076016457807 -1.7316561092636134 -1.8687124081199697 1.1510042190509102 -0.9514672727449163 0.865968142847622 1.2348916986882132 1.9730122830247385 0.07805029070900614 0.6390942668000974 1.4967669727850859 1.463723190668102 -1.0166358931498185 1.836191611221019 -0.0688773823565734 0.4314166834358795 0.2290000683841398 0.011404136054638782 0.19092036817737815 -1.327141750405556 0.49620517327496916 0.8694137334428951 -1.965822592711275 0.551611387186107 -1.2371683481532552 1.036463521322132 -0.3824358047307156 0.9778919223743454 0.15906274209418217 1.1113605635514343 -1.6372490234653991 0.15358553131202488 -0.6301750537517188 -0.9733287149089807 -1.9014518221289571 -1.0651139000958891 1.6248235887240483 -1.9495076079538065 1.7633314422283783 0.7777104088612623 -0.7889186856533883 -1.3144269096408356 -1.8401228081639198 -1.0300712781817416 0.9629977138954764 -0.7271797593324874 -1.9137563536408302 -0.7827896681439108 -0.6710455343473367 -1.717692639895942 -0.37633257807321197 1.6378687228271351 -1.61667161141603 0.07558577481970394 0.4443777547041217 -1.1647149282780824 0.5472113587829157 -0.6510980431900308 -1.2907175632348689 1.9546839927149744 -0.19939250567203134 1.517629000994818 1.457435525637405 0.4946210599670343 -1.1863403018288468 -1.021745428759302 -1.6535191160299574 -1.8686863260153692 0.6935481348832764 -1.5153941734132044 -0.8151600987077102 1.927722953861832 -1.0613259584694754 -1.1987849761735863 -0.09600620535276617 0.03737342147459609 1.711099006726943 -1.6526659878521723 1.4506844237858845 -0.6240293629430964 -1.317474119557064 1.7206736582624962 -0.4635626896328259 1.7226588801552714 -1.5208605069792203 -0.2087756896753701 -1.7366101992323197 -1.6744726852479674 0.1446421560038191 0.48078280195619183 1.3526845532262368 -0.6754362321086173 1.0606609662681583 -1.605099442508319 1.0336651403095756 1.1684423896901017 -1.5918628580902299 -0.8503465663964884 0.6090430354188308 0.6897484173786737 -0.47722040287002676 -1.4636460943522405 0.2935445488851597 0.6167818809262222 -1.6075498466763882 1.5933615521028432 -0.8699316283514791 -1.9620854712230331 1.0634311656560005 0.20448307105499589 -1.380076157766315 0.6982186651423237 -0.13249378240755963 -1.9803197999003284 0.16043253686149958 -0.003933054439918886 1.1511324965576852 -1.705596378767141 0.4654094135767558 0.1608858904997554 -0.41769402183614346 1.6694440784732736 -1.1492476814717216 0.33120352484096227 0.13074909407870836 0.9644668984539744 1.5999074720593178 -1.8840752598834687 0.4610687124838472 0.7336704630481721 1.5805037299995695 1.709538965523051 1.7483735825295144 -1.3668936381903838 1.8657889968483734 -1.2544393219780723 -1.1797256947645476 -0.42521808342657075 0.32136012227787203 1.810605110816625 -0.9513391987067257 0.19376205893728352 1.9499727725545455 0.9050512380195017 1.5594356368747637 0.32976304010158086 1.2438069797003206 -1.8759177050225722 -1.902530292166602 -1.9739805130170578 1.8760527225121524 -0.5533694617721516 -1.7209663830533852 0.9736673511710199 -0.22958402402374858 0.7577425616924656 -1.016802380696694 0.380871038254469 -0.08062587628385677 -1.9066433656764477 -1.7215815400976262 -1.0786172102744431 -0.7212800663280021 -0.4155533848757619 -1.4502557029561176 -1.2814845749303072 -0.35152254001977556 -1.3087210425454856 -0.6128907161104376 -1.7542210732228591 -0.3432082751403835 1.0562987129463273 0.31422699949092914 -1.423471129802786 1.7957411609412484 0.6677584348587304 0.5823241481230994 -0.4094247868368184 -1.0851261032103787 -0.9856958810354586 -1.9773056408513194 -0.4532481502459995 -1.3394312930887957 1.5242841433783747 -0.6539144344674468 0.8557821716974594 0.05590868064820009 0.8213817331330988 0.29697695811042724 -1.060983715520186 1.7482437084119882 -1.8080874719946616 -0.28497450932331836 1.7341150260995009 0.4083544914234808 -0.8528858281981175 0.8255823263450337 -1.290380159963704 -1.6526392222580504 -1.9227666535644055 1.9757965609182162 -1.8237851623512427 1.6242250932400153 0.7321762800374974 -0.44795029678059606 0.23296292453484455 1.7492466129008712 1.6272817462587694 1.9595071486265363 1.863092177452438 -0.45453890110186895 0.4605601821932169 1.3135987714921877 0.49418313828164784 0.8122073247726829 -0.7587729388284186 0.8880067207800155 0.7636242820625183 -1.8580254772922657 -1.9321534649880188 -0.6165846782462077 0.2811296065869686 -0.42605672946371964 -1.6428160205621967 -0.27461457303826897 1.8554700951164267 0.7242206491321115 -0.18634030058049422 0.36969970250154727 -0.046196463021988696 -1.384741585493248 1.542270522314547 0.987779349148624 -1.912506017937786 0.6336942463515673 0.44621368164265685 -0.07561647001019113 -0.6308305290098681 -1.1220312892022557 1.4138186772428472 1.9644214433297247 -1.3383620214966738 -1.385812321403173 1.7873646814571051 -0.2850674833752421 -0.46024353047613864 1.6404278769379679 -0.7798449192174199 0.30333508808592097 -1.2873595497164945 -0.932776340323816 1.2660050137178112 1.112066363781853 0.6038792332883243 -0.6464978065005726 -1.0912158592851267 1.914504531316104 1.4634337372739292 -1.6055046369171913 0.7281403087665019 0.046742447017734 -0.31417374676009047 1.0403396011198733 1.5103184309720552 -1.8561159196296977 -1.0654155168175063 -0.3693231000406265 -1.1482232981503806 0.48952654115997873 1.2241375921643125 0.9630571507907 1.6662808120172006 0.17133813954324453 -1.7141320698156108 0.5696962427954149 -0.5054758336970592 1.005256610756784 1.3458795242911488 0.25925298563234744 1.12868407676637 -0.41454833697356974 1.8679155173684223 -0.4125908763998275 1.3023261494524419 1.8364175395631674 0.8653331410644383 0.25176076135406744 -0.9401932714979858 1.088609205050398 -1.9376662643745672 0.36408677861153194 -1.0928304210742592 0.9680589519261504 -1.515071272372834 -0.8655222022707778 -0.04000941193342422 -1.7148256896966556 0.9881273622838731 1.70945339426792 -0.9579161368874334 0.6276010212069756 0.7767717681346982 0.7376129626234187 1.051825021188625 0.5061339658122632 -1.84720980333283 -0.30607553648788244 -0.09840978113176968 -1.3273481147528918 -1.4771167444495816 1.0754770480525164 1.9488071640954119 -0.37670197223364765 -1.8738454097268238 -1.711341046992732 -0.9245014848612203 0.31974437819422274 -0.00793708138152641 -0.6202759036414489 0.4364256351274839 -1.194005005575887 -0.6850605765054867 1.7178427786857569 0.3843758697635705 -1.33259217850255 0.7317899260454526 1.3214586779858029 -0.805954722969426 -1.8263397644270505 1.9163946752215346 -1.2736714082728429 -1.0551756271140897 1.4664079955093934 -1.5470041920339828 -0.8749571877323645 1.2854577518350934 1.2971505822965965 -1.8711253493503217 1.9654644413390971 0.7924009000889018 -1.409499917473417 -1.4139472144891 -1.7230526444267746 1.2464304465235618 -0.49785195381681424 0.6977043742752351 -1.2992519992805112 -1.6091846168761235 1.6608189314304078 1.086102642818577 1.5327708696087496 -0.40263714951072693 -0.07225519827175568 -1.1255707354133069 -1.9560800130629281 0.35502144650078094 0.27681324013159486 0.0656319676628263 1.9253344428641408 1.6089848509627402 0.29314789734677904 -0.13261111023932795 0.9129133929831392 -1.2833836346662886 0.3071355079124044 0.8327116138932962 1.4772674815873637 -1.8505057260692053 -1.674097318612783 -1.1379749405935007 -0.07721561654369817 -1.9403248378663331 -1.3066616670989837 -0.08726795878208371 1.320918415017824 -0.5590319283702905 0.8044671928739286 1.68866273527696 1.410456958318318 -0.14514740457041064 -1.7803095886023654 -1.3680204738117605 1.928933962034828 1.553409707815709 -1.831499639382543 1.216412770233275 -1.203081437163017 0.3203875156344087 -1.2977314104283737 1.8411780956064479 1.158632192290364 -1.5354762374319004 -0.3500430061881846 1.5508109909544818 -0.5105213795737615 1.137625657096668 -1.9497863503801187 -1.643097274595588 -1.1869243952607986 1.5131580306669798 0.8779273887837309 1.113610233332842 0.5275097805811952 1.3494757504676387 1.6525670335107714 0.6992814346737013 1.422261226282295 1.0748109879408219 0.9106201359556779 -1.31714966176196 1.1747942315984563 -0.23007406625412583 -0.4564598371399087 -1.2961814586746851 1.9472551619255825 -1.7129636406442827 -1.3526787142806675 -0.5289606647365361 1.661309641210861 -1.7675486312428865 -0.20047313446594517 -1.4143159118624946 -1.8893648587928622 -0.3468899032336883 -0.42630702982141644 -0.6799182088348443 -1.7219095719609583 1.0059511892709159 -0.3789817453622204 0.03459323243185519 -1.9436677031545329 0.3520487764257271 0.7935021542023115 -1.9094319214723976 -1.9722220352064683 -1.2941724732626247 0.5523193142311391 0.9181827070475646 -0.9581874553538581 -0.9170786258716517 -0.7002790087650654 -1.6761581558516858 1.0342770765390759 -1.971376818397435 -0.7076104988001355 0.17230050707888742 1.8659943419698117 0.27185004230447346 1.4383935681318398 -1.7450295982974642 -0.08535611918025814 -0.3616551261371349 -1.450054210898641 -1.5439576645473942 0.7357367992850148 0.46953479678740795 0.5181054312668438 1.2544512912024541 -1.6839623000674813 -0.4676977207392605 -0.6043385457584023 1.1498785197031771 1.2742604482902316 0.7676637405844802 -1.481583318807493 0.777291294885869 -0.1786270580358611 -1.784897875286577 1.5650955208546629 1.2749968174127457 0.37459293073669775 0.06230142593126686 0.8503506354952148 0.8970703686674533 -0.5737139434534804 -0.9915920419091822 -0.835031339495028 0.9117663255374835 -1.399021319410978 0.9921939895400393 -1.8781214034788527 1.5034104061502505 -1.2091677386693935 1.8248855130636645 0.2362006924858415 -1.3042598468965951 0.8416502261922519 1.3803896208981734 1.8617970728612478 -1.759029465177476 -0.5309600977013882 -0.26554343553364224 -0.37316349102881885 -0.03097013119307146 1.9157946250338935 1.0070071404587448 -1.8451687608598268 0.2678039899956728 1.3191531665451501 -1.3493042725910382 -0.37230900173686043 -0.8346046088236689 -1.1619216968412074 -1.4584844779383292 0.14132847612667598 1.9117125729952686 -1.7017998680723756 1.466004899072523 1.8243519510260828 1.0071753960313337 0.4438205517140603 -1.537384037522108 1.3346314427101715 1.302211406058618 0.8435005591845246 -1.036819079608812 -1.381847651217388 0.09196418662236082 -1.9222426688398966 0.7936669360324993 0.7090724234126362 0.056522544930384874 -0.95547120692387 -1.1682083155239256 1.8695309514400553 -0.5525474779816444 -1.9502093594672942 -0.5179518731469185 -0.4880140291227954 -0.9022794058047534 1.8082591141256996 1.117487059196419 -0.8830957325877193 1.6322647745279135 1.5605587673847117 0.25029847427773966 -1.2474283837796278 -1.3171342565704953 0.2208241552830441 1.4320771250992061 0.8238851437442283 -1.0388633648455716 -1.1998105463305033 1.7473895117315559 -0.679028005716463 -0.2802421982016505 0.30912469411601506 0.25301375380670343 -0.8915178519478859 -1.5674416624867553 0.9233271390131979 0.8282272261916153 -0.309343613328284 0.4499268194729974 -0.594997500786179 1.6398890328316154 -0.5931058633089048 1.9367908550833923 -1.396625185674278 -0.2106795526938792 -0.8429505854088737 -0.42372339321422003 1.3153951289336012 1.696368639590967 -0.4746818936466862 -0.6773356744921994 0.8693474865706728 -1.610985524965634 -0.43418336776655997 1.9135065164335625 -1.4984033584963266 0.1056845203762173 -0.4671060955999784 0.9010128180602717 0.9281706778757015 -1.5198769495255604 -0.5164552656452672 -0.36085587970324307 -1.52954223366484 1.0675192711537722 -1.051380499484944 0.9630554277467804 0.6757869032156432 -1.9166789428160018 -0.23553466668430056 -0.7761751828105323 0.5811605837917955 -1.0350805476728007 -1.3241270862562966 0.8918820973395563 -1.3998381605405883 0.7293900625242378 0.4658367074567321 1.118433259562158 -1.529816480275087 1.0888512390962601 -1.8628461070738873 1.4449318140337541 -1.2208705776713882 -1.1017437272832313 -1.9345992090144604 0.27652179248707454 0.29787163389855353 0.748814677347476 -0.9375355240907426 -1.2141209628317582 -0.3235262189405667 -0.6167817455271859 0.9340263578940337 0.5901327752550243 0.01973826238299883 -0.9023566404722043 0.3844502296029293 -0.156219066164744 -1.5609184915448546 -0.5918021592115914 -1.983533517890745 1.3168567167946041 1.8853313998540981 -1.001679498236852 1.6931384513675796 1.5777967916553268 -0.6014734897936336 -0.6736230192639296 0.6735815303547925 -1.423237723868064 1.3682995859272022 -0.7385512115332777 1.7039069373042253 -0.2743631671772091 0.48017957840481884 -1.271687103892908 -1.3608834120738709 1.9968129116038797 -1.2697276581259378 -1.4190125394261548 -0.8087017218990598 1.6136275545724592 0.22278211951247082 -0.2125306546470991 0.04397528456518028 -0.4188141361071772 -1.5780282389275189 -0.5033261140828598 0.8420973326048811 -1.393188148404922 1.1118817826661993 -1.3284356571797424 -1.5386141075128794 0.8856198216714319 0.5246807321228579 -0.28874588348834085 1.4807950073882652 -1.2230661700812373 1.9299627856481494 -1.1524355720874269 -1.0742055652244415 1.5736235735973527 -0.5651008906921748 -0.9096441272958731 -0.8797264947901162 1.3666211865500442 0.8266347470253956 1.1086914775636791 -0.1211534995992456 1.433181116730625 1.995826781749464 -0.32635985676126733 0.2913474377030374 -0.3720785001886622 -0.18802954425422724 -1.8484689576896542 0.9955498996105367 0.9315689140576136 -1.721715350602489 1.0248450710924462 0.10377571824138206 -0.3869196591866503 -1.624066546131476 -1.4688161043818746 -0.1564417059599086 -1.6132997737694534 -0.78550784934148 -1.7508614559712998 -1.5078394112489986 -0.5040167967056874 0.9372917626970113 1.8228566294015458 1.3289719865161338 -1.1668767611608235 0.28782647787262794 -0.9940940831107179 -0.9001406921777702 -0.9979057858152625 -0.17514794533639755 -0.18227370714480706 0.8814906236740563 -1.3394952325841314 -0.5186048917616799 0.8448046515501195 -1.7462585274443891 1.525235605478048 0.4943767234607641 -0.418559745096295 -0.6677200602248146 -0.8967636039476146 -1.3109404564420806 -0.806277623482984 0.48342727843965383 0.5093325006043261 0.6842756695174756 1.2033445173908572 0.43764451156187156 -1.341223626970621 -1.2084776452783612 1.3262522297297914 -1.9623784114885137 -1.3269705475737945 0.21301154563050215 0.06437884570324857 -0.9985546379045724 -0.4868549951137048 -0.39910410738213675 -1.3628974855285425 0.8509607169095672 1.6555955876758048 -0.8783831103901296 0.45203694885215656 0.5496611764524059 0.05169760294116106 0.8768774589501418 -1.4464342009990578 0.41449591935480645 0.6619509819390119 -1.135838752405002 0.3502248732948905 -1.4900744868845082 -1.466991015266832 1.6173626986708864 -1.589119845194134 0.0026479488003583462 -0.3148408452629625 -1.7504878755489788 0.2323802362093108 -0.1505965343539808 -1.9954950889475733 -0.17286452006503872 0.6201191099577308 0.7102680550515821 -0.11549010482347599 0.8375147111848982 1.6859446461771546 -0.8759011346891721 -0.46254578590792905 -0.03275404484225035 1.4562234807825245 1.7524188244002996 -1.3029017258579438 -0.5075033728021088 -1.3038720687101417 1.8925319503907492 -0.1402603289266027 0.28849553739653866 -1.2054075753313676 -1.519706492191545 -1.7386820355517383 0.7975135580299375 1.4173623619969806 -0.5528146141209574 -1.5354683077446865 1.2521521103180526 1.1243596343915838 -1.4336034662172108 -1.2698994457151178 1.0321702995612276 1.2602804651138548 1.8165509727021378 0.27269741019072136 1.2407309438545613 1.166186072451294 1.8118206519637758 1.0522458180104866 -1.5826395911976863 -0.8774218840736103 0.9911411716015981 0.9275833076102393 -1.23752547004465 -1.5767937459621946 -1.9707449717520875 0.7999673484812226 -0.6699506930939672 -0.4081437750741045 1.326556249228764 -1.2002177662611042 1.3521466828038147 -0.00725802800465858 -1.5456754046918602 -0.37944045900117185 1.1910072063272379 -1.051620882352886 -0.9234534897574689 -1.2196948567226484 -1.6284411818452287 1.9672002850665744 1.138775005416603 1.8906041248013397 -0.2710910502200322 -0.2038520113570441 -1.9905319495373877 1.9402656141508259 -0.08704837425232718 -1.2477192489784836 -0.2216607961612915 1.1505467502365652 1.3236328430690367 -1.8498775551299156 1.0609645639237995 0.13500894593121737 1.008065893263566 0.6303252254197615 -1.571402346685581 1.897990637137171 -1.867895501755017 1.8079532708321406 -1.0237617886140788 -0.3689676487458957 -0.6534607721932986 0.8974455209852721 -0.4380090705710433 -0.6821702634762885 0.6998078058050181 -0.16568186240662316 1.8950017436560072 -1.1662101265867597 -0.2937589460463147 -1.0979559124357148 1.9188693097552894 0.527129139166645 -0.23912813344202968 -0.014201452152356717 0.8320505239512805 -1.8056797931635709 -0.7010354668221888 -1.6868566432448144 1.606003669255323 -0.08683120394561274 1.9301490783505382 -0.09530257821517486 -0.9931469219305168 1.3730967141736383 1.2345997063907492 0.9466497013922828 -1.1046088881693343 -1.8575163631845624 0.9901177263384588 -1.0903661576874994 1.9749923028811374 -0.2610695314764193 0.30661984483080484 1.4773849282977487 -1.8233036709440391 -0.5807555160948152 -0.5240460839461445 -1.7887392724081401 0.5148216669011507 1.2812914983336463 -1.6974803224698065 1.3655206737894865 1.5164564486249636 -1.4288950882014317 0.261896651823497 -1.6187711446695987 1.2224267634544654 -1.985860739547419 -0.9581839584423784 1.325016696851891 1.2769541909994846 -1.4595812402184807 0.8518128198968118 -0.0976960819079984 0.7678320080527687 -1.050799407454401 -1.6549687759257878 0.6625754853098142 -1.7518235222199459 -0.14075287990049581 0.07737877649551693 1.6280533489558233 0.7658512428598242 0.7170949899457345 1.1367814651001145 0.8149513148283489 0.7456911662017425 0.6859862930964735 -0.0932880956273117 0.9799357837810816 1.214413499591327 0.9141382291829498 -1.1141948158775459 -0.5870753058450124 1.1277866707826636 -1.0180382223032653 -1.9332043192711255 0.7101376957193306 -0.5462708960271132 0.25318929220786357 1.5855662758176603 -1.7998998230611893 -0.8150011479091628 1.40611250770375 0.1828231468231825 0.05828153538166499 -1.4006141584790668 0.5966305588080307 -0.5219534473395697 1.1344142845585097 -1.145068861488085 0.5056719051526659 1.1373659111754035 1.1299120112233307 -1.597684472393461 -1.0505782613013466 -1.2758551234557478 7.762189091161717E-4 1.715785695081716 -1.218737856414712 -1.6472161482597483 -1.6748232124639806 -1.5109716157997082 -1.509374921318356 0.22379259455066605 1.8626739959627625 1.7114373154202438 -0.7957644284284768 0.6997102664577066 -0.3544644459043421 0.9349534946037559 -1.2787650318212433 -0.2112832675405203 1.6810902451758305 -1.4386047700824545 -1.2353938256377481 1.7349554934833389 1.706840408678182 0.12422969783307414 -0.19332547212920925 0.8711972888182422 0.428852134806036 0.30877752306828465 -1.372303270444322 -1.02804591484822 1.2869133312623293 0.8490715037915684 1.192051667236568 0.051898986176279506 -1.971678948121102 -1.5407967533337334 1.4774080045006395 1.8866617884005223 -0.7644737330972868 -1.398384220954926 -0.4318864523454312 -1.5101893066862893 -0.5591591153620119 0.16402101149879675 -0.37547413323759915 0.3623193000779109 1.5752017784862313 1.0116660263370179 0.2662956855868909 1.5374049499224802 1.2357616491807333 -1.099295145589822 -1.5420997867265553 -1.7240840478881858 -0.37933474190871597 -1.6168314807686306 1.1607071504109676 1.7243278621949938 -1.0325196889410932 -1.896236040310081 0.8168397434406796 1.9296961839318896 -0.05470494946985642 0.28276276557158775 1.15539278570997 1.312504827529966 0.6883357495752498 -0.8007115012029025 -1.137153004701196 -1.9691640723414277 0.022693958213018752 0.13353149184360683 -1.6650141999604595 -0.3739746665412692 0.9257417469372398 -1.503960091319552 1.028600126539907 0.9221930875220796 -1.628711387113003 -1.2331421795011526 -0.14324936506262567 -0.6412461750886396 -1.5485014927265297 -1.6134992296454294 -1.3774018984911383 1.7675492756528026 1.0303736770953766 -1.1141954886666445 -1.3378515253879573 -0.9372297755887123 -1.828613368276026 -0.6892947889288586 1.667302549035678 1.394177225816061 -0.8045661540773863 -0.6071509932395145 1.0862288898048744 0.02098565225935253 -1.5366103277838832 -0.06371134965773044 -1.450879489907412 1.4960763401554278 1.8410879909514088 -0.46468096545182036 -1.5572654406786084 0.7067841521615188 -1.7076045471534362 -1.9924057359067655 -0.9416479675706833 1.9010017212179195 0.15977952651883956 -0.17836062218777823 0.6632815897596929 1.0340748762886003 -0.5702388115837749 1.3172223829945677 1.3970101221932945 0.6041936870410305 1.6441201543766981 -0.3386090226815538 -0.9314371645228523 -0.3993066967784954 0.10568107228971678 -0.7470405946029077 0.7329287152543567 -1.72777713981037 0.6413029512221089 0.6823140163871255 -1.6503219675107914 0.12825854981405718 1.422462420449643 -1.6268060845249122 1.8779790197320634 1.9197863996959548 1.207419274683402 1.6775641802402332 -1.1620643716038583 0.3018295375159451 0.857054363495513 -1.5358366629095999 -0.3311672238213471 -0.5372035250330813 1.0900206259357845 0.13608999065067232 -0.8590221206601769 1.2122129792797542 0.1806813169684274 -1.4681162345986545 -0.3718880203238496 1.8508884349940224 -1.3329590131898161 0.30952644272293883 -1.7763874142174276 0.6043063446399148 0.12396424788821146 -0.8178546671341762 0.4843078470417447 -1.5177466986390034 1.6700770618429988 0.768519114278915 1.0112918193856264 -1.8655844165905178 -0.8845297872829379 0.8415142945196645 1.1284083755926622 0.6042118962107728 1.5201595265617955 -0.5983973758393446 0.5943417676072065 1.83965289578898 -1.5782048043632066 -1.727553859426438 -0.4146585665693045 0.402350340132637 -1.8956753268502617 -1.190024474286516 -0.8887058920420063 -1.97724076831858 1.017524253792451 0.835854333439634 0.5785758419046982 -1.5183441368321593 0.8208537191867094 0.05100840022166793 -1.6108475371250752 -0.2447967514612772 0.5129215128042373 0.9539875049259647 1.2657201286153024 1.4424780343185906 0.7215753248078245 1.6838975329000152 0.41900894973355085 -1.798059622932496 1.4677336413857143 -1.7730025148498454 1.7235978497615059 0.2547945709911442 1.5791458072670927 -1.9296255488012406 -1.2550815075320814 1.970771134487784 1.4190452686232793 -0.3438621867669517 -0.23954814761837387 1.1334342423500603 -1.29257036159727 -0.1164065074249734 -1.1558451406011971 -1.310595479987486 1.9512940103110137 1.4266999733457881 -1.3661391778706045 1.6178411305070233 -0.6366888679729011 0.7785284223719889 -1.4228072568762884 -1.9864239504707082 1.1367868609166853 -1.2959710717166666 1.2522359298989798 1.5592455240762906 -0.4421336671006252 -0.8231921172631931 0.7852494528021294 0.26905306588824807 0.6745587732102621 -1.1045409349669018 1.4380209235059604 -0.28163364023983106 1.105024215064287 1.1191182383333378 -0.8861983941139486 -0.06905553540651678 -1.9439496910299847 -1.168352331417902 -0.16902009206870774 -0.3229645881345936 1.7361025692804004 -0.8614415818782002 -0.8600145456603607 -1.8567794860755247 -0.9147411117371378 -0.6800406866150277 1.0092397967823414 1.766389459859234 0.10786431679602314 -0.8924056077742171 1.882003518022998 -0.5184322731210458 -0.9180538999539035 -0.4765144630007478 1.4066700206488791 -1.2847530633366304 -1.467288076226556 0.012229641296009007 1.7688642472488412 1.1629096155935539 -1.9042450429647384 -1.3814485917305266 -1.395547097808112 1.7214894930020264 -0.7411600860455142 0.6062109547278819 0.14838777859026966 -0.09549251248118498 0.4594558376630023 1.1839298730630747 1.5750641552929614 0.6496868287556874 -0.8714164283839174 -0.10149021004503102 0.41167072757114653 -1.3641320348127128 -1.9905798924465317 -0.22513844690672505 -1.5432329343160323 -0.9419367247556465 0.44306200022191533 -0.572824793123403 -0.1878589927073209 0.26655393280417583 1.3014641494638903 1.135022542379493 -0.5632557240680052 1.7579294839564876 0.8612404215218568 0.272684806297225 -1.9426929768648424 0.7130243036647806 0.1501704250077767 -0.5004515120014493 1.3210072177827423 1.608719646569352 -1.8384492514530661 0.7639313293362372 -0.24865289304936408 -1.6123633087177738 -0.18017568896550348 1.4422514870464145 1.3691878668468305 1.2517400779486603 -1.3058238159053466 1.829952213531545 0.7666452396192044 -1.6470624264342146 0.1950924671319916 -0.2798425419659049 0.9723582792211867 -1.5142270826025084 -0.6478553476304667 -0.04945434398117955 1.622415667983136 -1.655649166754582 -1.7404474759211879 -1.431527659553538 0.7519875247805115 0.9876457195937813 1.889340861054142 0.6588832138920011 -0.05147163706929726 0.8644096442580003 -0.7897808383209928 1.8991230197734792 1.6581616879241792 1.0808918553555045 -0.5864375104933475 -1.4507545548692318 -0.887340552857365 0.5516366938680032 -1.4638284547347986 0.8559780609212079 -0.35479443682870654 -1.7443584340674634 -0.11723961409841113 -1.2569813208139875 -0.9110938785870358 1.027212353253626 -1.6105782272854716 -1.8201128189958538 -1.4971869995326994 -1.857151495863282 0.4325666920636149 -0.23394126226707576 0.645972813442134 0.4225559923696967 -1.4238497178380363 -0.16333453428195718 -1.5791709498888 1.6459974398290291 -0.6367420760672127 -1.209432921777554 -1.0669288299807267 1.7909308603488965 -0.5035832861671194 1.3611326052695865 -1.1342055689870398 -1.0665981104532678 1.6142609720948746 1.1945885111668724 -0.45835444375942236 1.6062163835679102 -0.6395072005514029 1.3703503798647452 -0.652620919151367 -0.005781308527080713 -1.445671513352916 1.392255876962854 -0.8789504835174442 -1.4480449085737264 1.0099214289234548 -0.30083412324910647 -1.3471587749634613 -1.538683238254205 -0.08447711153427154 -1.1120779487854984 1.6263106547798811 1.8038112344688777 0.6714419187303332 -1.3888016285642548 -1.8723790987493438 -1.5958920798463025 0.6991144306443563 -1.4927164953537688 -1.7239077172688577 -0.9914316082723161 -0.028093327842636674 -1.4616053639876418 -0.4197902070175771 -1.2055175025912943 -1.1184624484782684 0.758640726321264 0.2989936362872442 1.1627753113521941 -0.4577008297083215 0.8022705069679359 1.3894088048277955 -0.6510389383219233 0.7485164192638003 1.277406285330223 -1.453698706355898 -1.4058156120008523 1.538998093944599 -1.2300393558172527 1.3920991396911644 0.4501867970848027 -0.31451558136439883 -0.6930160353027965 1.0493151180909441 -0.7509117906839526 1.410392213503283 -0.1017819548448864 0.12966398090842388 -1.149102431260299 -0.7475634059616871 0.16915958531682504 0.5993886972901612 1.4886985496600076 -1.763007862630436 -1.881527056274635 -0.9688261846631724 1.8634895424758517 0.37132606202812785 1.6771139315027779 1.4287951171147237 -1.4023211567391987 1.973142985252188 1.0160770036131659 1.1114601845542325 -0.26170312737970824 1.4541302570691315 -0.5558158272460665 -0.9294562412931271 1.2079611262304386 0.9184885994927268 1.2568762900972472 -1.2377792988436487 0.9337316303050567 1.299730387672581 -0.958485111671094 0.47529114201022804 0.8409703141737721 
